<?xml version="1.0"?>
<opencv_storage>
<!-- Created using Computer Vision System Toolbox(tm) for MATLAB(R) -->
<!-- Version 9.2.0.556344 (R2017a) -->
<!-- Compatible with OpenCV 3.1 -->
<cascade>
  <stageType>BOOST</stageType>
  <featureType>HOG</featureType>
  <height>35</height>
  <width>32</width>
  <stageParams>
    <boostType>GAB</boostType>
    <minHitRate>9.9500000476837158e-01</minHitRate>
    <maxFalseAlarm>1.5000000596046448e-01</maxFalseAlarm>
    <weightTrimRate>9.4999999999999996e-01</weightTrimRate>
    <maxDepth>1</maxDepth>
    <maxWeakCount>100</maxWeakCount></stageParams>
  <featureParams>
    <maxCatCount>0</maxCatCount>
    <featSize>36</featSize></featureParams>
  <stageNum>11</stageNum>
  <stages>
    <!-- stage 0 -->
    <_>
      <maxWeakCount>2</maxWeakCount>
      <stageThreshold>3.7866082042455673e-02</stageThreshold>
      <weakClassifiers>
        <_>
          <internalNodes>
            0 -1 26 2.5500815361738205e-02</internalNodes>
          <leafValues>
            -7.6923078298568726e-01 1.</leafValues></_>
        <_>
          <internalNodes>
            0 -1 14 1.3975160196423531e-02</internalNodes>
          <leafValues>
            8.0709683895111084e-01 -8.2729405164718628e-01</leafValues></_></weakClassifiers></_>
    <!-- stage 1 -->
    <_>
      <maxWeakCount>1</maxWeakCount>
      <stageThreshold>7.6923078298568726e-01</stageThreshold>
      <weakClassifiers>
        <_>
          <internalNodes>
            0 -1 31 3.0181830748915672e-02</internalNodes>
          <leafValues>
            7.6923078298568726e-01 -1.</leafValues></_></weakClassifiers></_>
    <!-- stage 2 -->
    <_>
      <maxWeakCount>3</maxWeakCount>
      <stageThreshold>4.6535325050354004e-01</stageThreshold>
      <weakClassifiers>
        <_>
          <internalNodes>
            0 -1 29 2.1844156086444855e-02</internalNodes>
          <leafValues>
            -8.6666667461395264e-01 6.6666668653488159e-01</leafValues></_>
        <_>
          <internalNodes>
            0 -1 34 2.8089396655559540e-02</internalNodes>
          <leafValues>
            8.0834794044494629e-01 -8.7826263904571533e-01</leafValues></_>
        <_>
          <internalNodes>
            0 -1 5 1.4837507158517838e-02</internalNodes>
          <leafValues>
            -9.6136993169784546e-01 6.7694926261901855e-01</leafValues></_></weakClassifiers></_>
    <!-- stage 3 -->
    <_>
      <maxWeakCount>4</maxWeakCount>
      <stageThreshold>-3.9086207747459412e-01</stageThreshold>
      <weakClassifiers>
        <_>
          <internalNodes>
            0 -1 33 2.3865845054388046e-02</internalNodes>
          <leafValues>
            -6.1403506994247437e-01 1.</leafValues></_>
        <_>
          <internalNodes>
            0 -1 32 9.3020536005496979e-03</internalNodes>
          <leafValues>
            -8.8017505407333374e-01 5.1455569267272949e-01</leafValues></_>
        <_>
          <internalNodes>
            0 -1 21 9.2608276754617691e-03</internalNodes>
          <leafValues>
            4.7278800606727600e-01 -7.4829488992691040e-01</leafValues></_>
        <_>
          <internalNodes>
            0 -1 2 1.6931157559156418e-02</internalNodes>
          <leafValues>
            6.2786501646041870e-01 -7.6417070627212524e-01</leafValues></_></weakClassifiers></_>
    <!-- stage 4 -->
    <_>
      <maxWeakCount>4</maxWeakCount>
      <stageThreshold>-2.1328306198120117e-01</stageThreshold>
      <weakClassifiers>
        <_>
          <internalNodes>
            0 -1 3 6.8814218044281006e-02</internalNodes>
          <leafValues>
            -6.2962961196899414e-01 7.3333334922790527e-01</leafValues></_>
        <_>
          <internalNodes>
            0 -1 17 9.4794081524014473e-03</internalNodes>
          <leafValues>
            7.4625587463378906e-01 -5.7752150297164917e-01</leafValues></_>
        <_>
          <internalNodes>
            0 -1 30 2.7240684255957603e-02</internalNodes>
          <leafValues>
            3.8570499420166016e-01 -1.</leafValues></_>
        <_>
          <internalNodes>
            0 -1 25 2.4308677762746811e-02</internalNodes>
          <leafValues>
            -7.1561431884765625e-01 6.4280933141708374e-01</leafValues></_></weakClassifiers></_>
    <!-- stage 5 -->
    <_>
      <maxWeakCount>2</maxWeakCount>
      <stageThreshold>-8.1125825643539429e-02</stageThreshold>
      <weakClassifiers>
        <_>
          <internalNodes>
            0 -1 27 1.2627471238374710e-02</internalNodes>
          <leafValues>
            1. -8.0392158031463623e-01</leafValues></_>
        <_>
          <internalNodes>
            0 -1 20 2.0222831517457962e-02</internalNodes>
          <leafValues>
            7.2279572486877441e-01 -8.8386696577072144e-01</leafValues></_></weakClassifiers></_>
    <!-- stage 6 -->
    <_>
      <maxWeakCount>4</maxWeakCount>
      <stageThreshold>1.7049880698323250e-02</stageThreshold>
      <weakClassifiers>
        <_>
          <internalNodes>
            0 -1 10 5.2261077798902988e-03</internalNodes>
          <leafValues>
            1. -6.7272728681564331e-01</leafValues></_>
        <_>
          <internalNodes>
            0 -1 13 1.0089466348290443e-02</internalNodes>
          <leafValues>
            7.2682774066925049e-01 -7.1220123767852783e-01</leafValues></_>
        <_>
          <internalNodes>
            0 -1 23 1.0598057880997658e-02</internalNodes>
          <leafValues>
            8.5359686613082886e-01 -7.8020685911178589e-01</leafValues></_>
        <_>
          <internalNodes>
            0 -1 19 1.5750437974929810e-02</internalNodes>
          <leafValues>
            7.4315631389617920e-01 -8.1474119424819946e-01</leafValues></_></weakClassifiers></_>
    <!-- stage 7 -->
    <_>
      <maxWeakCount>5</maxWeakCount>
      <stageThreshold>-5.4989311844110489e-02</stageThreshold>
      <weakClassifiers>
        <_>
          <internalNodes>
            0 -1 15 1.6154892742633820e-02</internalNodes>
          <leafValues>
            2.1212121844291687e-01 -8.3333331346511841e-01</leafValues></_>
        <_>
          <internalNodes>
            0 -1 7 1.7591547220945358e-02</internalNodes>
          <leafValues>
            6.2826114892959595e-01 -7.3138028383255005e-01</leafValues></_>
        <_>
          <internalNodes>
            0 -1 4 2.2473465651273727e-02</internalNodes>
          <leafValues>
            -6.3851439952850342e-01 6.3450562953948975e-01</leafValues></_>
        <_>
          <internalNodes>
            0 -1 22 2.0694386214017868e-02</internalNodes>
          <leafValues>
            4.8238408565521240e-01 -9.4855803251266479e-01</leafValues></_>
        <_>
          <internalNodes>
            0 -1 6 2.3135628551244736e-02</internalNodes>
          <leafValues>
            -7.3924136161804199e-01 7.5000232458114624e-01</leafValues></_></weakClassifiers></_>
    <!-- stage 8 -->
    <_>
      <maxWeakCount>3</maxWeakCount>
      <stageThreshold>-2.6083993911743164e-01</stageThreshold>
      <weakClassifiers>
        <_>
          <internalNodes>
            0 -1 11 1.7119828611612320e-02</internalNodes>
          <leafValues>
            -8.4210526943206787e-01 2.9032257199287415e-01</leafValues></_>
        <_>
          <internalNodes>
            0 -1 24 7.1278391405940056e-03</internalNodes>
          <leafValues>
            -1. 3.1665503978729248e-01</leafValues></_>
        <_>
          <internalNodes>
            0 -1 12 2.4336140602827072e-02</internalNodes>
          <leafValues>
            3.6111569404602051e-01 -8.6781758069992065e-01</leafValues></_></weakClassifiers></_>
    <!-- stage 9 -->
    <_>
      <maxWeakCount>4</maxWeakCount>
      <stageThreshold>3.3409136533737183e-01</stageThreshold>
      <weakClassifiers>
        <_>
          <internalNodes>
            0 -1 1 6.9528310559689999e-03</internalNodes>
          <leafValues>
            -8.8888889551162720e-01 2.7272728085517883e-01</leafValues></_>
        <_>
          <internalNodes>
            0 -1 16 1.1242799460887909e-02</internalNodes>
          <leafValues>
            -8.7152397632598877e-01 4.3767687678337097e-01</leafValues></_>
        <_>
          <internalNodes>
            0 -1 28 1.8449470400810242e-02</internalNodes>
          <leafValues>
            -7.9309576749801636e-01 5.6324034929275513e-01</leafValues></_>
        <_>
          <internalNodes>
            0 -1 18 1.9290115684270859e-02</internalNodes>
          <leafValues>
            4.6480351686477661e-01 -9.3955314159393311e-01</leafValues></_></weakClassifiers></_>
    <!-- stage 10 -->
    <_>
      <maxWeakCount>3</maxWeakCount>
      <stageThreshold>1.7130950093269348e-01</stageThreshold>
      <weakClassifiers>
        <_>
          <internalNodes>
            0 -1 0 1.3710658065974712e-02</internalNodes>
          <leafValues>
            4.0740740299224854e-01 -8.0952382087707520e-01</leafValues></_>
        <_>
          <internalNodes>
            0 -1 8 1.3240713626146317e-02</internalNodes>
          <leafValues>
            7.0833414793014526e-01 -6.2867420911788940e-01</leafValues></_>
        <_>
          <internalNodes>
            0 -1 9 2.5208806619048119e-02</internalNodes>
          <leafValues>
            4.0047669410705566e-01 -9.4443207979202271e-01</leafValues></_></weakClassifiers></_></stages>
  <features>
    <_>
      <rect>
        0 0 8 8 7</rect></_>
    <_>
      <rect>
        0 0 8 8 12</rect></_>
    <_>
      <rect>
        0 8 8 8 21</rect></_>
    <_>
      <rect>
        0 8 8 8 33</rect></_>
    <_>
      <rect>
        0 12 8 8 32</rect></_>
    <_>
      <rect>
        0 16 8 8 24</rect></_>
    <_>
      <rect>
        0 16 8 8 26</rect></_>
    <_>
      <rect>
        0 16 8 8 29</rect></_>
    <_>
      <rect>
        4 0 8 8 8</rect></_>
    <_>
      <rect>
        4 4 8 8 4</rect></_>
    <_>
      <rect>
        4 8 8 8 1</rect></_>
    <_>
      <rect>
        8 16 8 8 29</rect></_>
    <_>
      <rect>
        8 16 8 8 35</rect></_>
    <_>
      <rect>
        12 0 8 8 8</rect></_>
    <_>
      <rect>
        12 8 8 8 0</rect></_>
    <_>
      <rect>
        12 8 8 8 25</rect></_>
    <_>
      <rect>
        12 16 8 8 21</rect></_>
    <_>
      <rect>
        12 16 8 8 26</rect></_>
    <_>
      <rect>
        12 16 8 8 34</rect></_>
    <_>
      <rect>
        16 8 8 8 3</rect></_>
    <_>
      <rect>
        16 8 8 8 12</rect></_>
    <_>
      <rect>
        16 8 8 8 13</rect></_>
    <_>
      <rect>
        16 8 8 8 25</rect></_>
    <_>
      <rect>
        16 12 8 8 12</rect></_>
    <_>
      <rect>
        16 16 8 8 27</rect></_>
    <_>
      <rect>
        16 16 8 8 28</rect></_>
    <_>
      <rect>
        0 0 8 16 24</rect></_>
    <_>
      <rect>
        8 0 8 16 11</rect></_>
    <_>
      <rect>
        8 0 8 16 23</rect></_>
    <_>
      <rect>
        12 0 8 16 29</rect></_>
    <_>
      <rect>
        0 0 16 8 31</rect></_>
    <_>
      <rect>
        0 8 16 8 4</rect></_>
    <_>
      <rect>
        0 0 16 16 1</rect></_>
    <_>
      <rect>
        0 0 16 16 15</rect></_>
    <_>
      <rect>
        0 0 16 16 31</rect></_></features></cascade>
</opencv_storage>
