<?xml version="1.0"?>
<opencv_storage>
<!-- Created using Computer Vision System Toolbox(tm) for MATLAB(R) -->
<!-- Version 9.2.0.556344 (R2017a) -->
<!-- Compatible with OpenCV 3.1 -->
<cascade>
  <stageType>BOOST</stageType>
  <featureType>HOG</featureType>
  <height>72</height>
  <width>32</width>
  <stageParams>
    <boostType>GAB</boostType>
    <minHitRate>9.9500000476837158e-01</minHitRate>
    <maxFalseAlarm>1.5000000596046448e-01</maxFalseAlarm>
    <weightTrimRate>9.4999999999999996e-01</weightTrimRate>
    <maxDepth>1</maxDepth>
    <maxWeakCount>100</maxWeakCount></stageParams>
  <featureParams>
    <maxCatCount>0</maxCatCount>
    <featSize>36</featSize></featureParams>
  <stageNum>9</stageNum>
  <stages>
    <!-- stage 0 -->
    <_>
      <maxWeakCount>2</maxWeakCount>
      <stageThreshold>4.0816582739353180e-02</stageThreshold>
      <weakClassifiers>
        <_>
          <internalNodes>
            0 -1 12 3.8122884929180145e-02</internalNodes>
          <leafValues>
            -9.5744681358337402e-01 1.</leafValues></_>
        <_>
          <internalNodes>
            0 -1 15 2.8454424813389778e-02</internalNodes>
          <leafValues>
            1. -9.5918339490890503e-01</leafValues></_></weakClassifiers></_>
    <!-- stage 1 -->
    <_>
      <maxWeakCount>1</maxWeakCount>
      <stageThreshold>7.6923078298568726e-01</stageThreshold>
      <weakClassifiers>
        <_>
          <internalNodes>
            0 -1 14 3.1199302524328232e-02</internalNodes>
          <leafValues>
            7.6923078298568726e-01 -1.</leafValues></_></weakClassifiers></_>
    <!-- stage 2 -->
    <_>
      <maxWeakCount>2</maxWeakCount>
      <stageThreshold>-5.2439380437135696e-02</stageThreshold>
      <weakClassifiers>
        <_>
          <internalNodes>
            0 -1 5 2.1316466853022575e-02</internalNodes>
          <leafValues>
            -9.5555555820465088e-01 8.3333331346511841e-01</leafValues></_>
        <_>
          <internalNodes>
            0 -1 6 3.3495545387268066e-02</internalNodes>
          <leafValues>
            -8.8577270507812500e-01 1.</leafValues></_></weakClassifiers></_>
    <!-- stage 3 -->
    <_>
      <maxWeakCount>1</maxWeakCount>
      <stageThreshold>1.</stageThreshold>
      <weakClassifiers>
        <_>
          <internalNodes>
            0 -1 8 6.4717836678028107e-02</internalNodes>
          <leafValues>
            -1. 1.</leafValues></_></weakClassifiers></_>
    <!-- stage 4 -->
    <_>
      <maxWeakCount>1</maxWeakCount>
      <stageThreshold>9.1666668653488159e-01</stageThreshold>
      <weakClassifiers>
        <_>
          <internalNodes>
            0 -1 1 6.6638022661209106e-02</internalNodes>
          <leafValues>
            -1. 9.1666668653488159e-01</leafValues></_></weakClassifiers></_>
    <!-- stage 5 -->
    <_>
      <maxWeakCount>2</maxWeakCount>
      <stageThreshold>6.1458428390324116e-03</stageThreshold>
      <weakClassifiers>
        <_>
          <internalNodes>
            0 -1 11 2.5409784168004990e-02</internalNodes>
          <leafValues>
            -8.7755101919174194e-01 1.</leafValues></_>
        <_>
          <internalNodes>
            0 -1 9 2.4479787796735764e-02</internalNodes>
          <leafValues>
            -8.8621604442596436e-01 8.8369685411453247e-01</leafValues></_></weakClassifiers></_>
    <!-- stage 6 -->
    <_>
      <maxWeakCount>2</maxWeakCount>
      <stageThreshold>-7.3251329362392426e-02</stageThreshold>
      <weakClassifiers>
        <_>
          <internalNodes>
            0 -1 2 3.5615246742963791e-02</internalNodes>
          <leafValues>
            -8.3673471212387085e-01 8.9999997615814209e-01</leafValues></_>
        <_>
          <internalNodes>
            0 -1 4 4.5249931514263153e-02</internalNodes>
          <leafValues>
            -9.2104542255401611e-01 7.6348334550857544e-01</leafValues></_></weakClassifiers></_>
    <!-- stage 7 -->
    <_>
      <maxWeakCount>2</maxWeakCount>
      <stageThreshold>-3.8542848080396652e-02</stageThreshold>
      <weakClassifiers>
        <_>
          <internalNodes>
            0 -1 10 1.2613937258720398e-01</internalNodes>
          <leafValues>
            -9.1304349899291992e-01 8.2608693838119507e-01</leafValues></_>
        <_>
          <internalNodes>
            0 -1 0 4.2200293391942978e-02</internalNodes>
          <leafValues>
            -8.1460446119308472e-01 8.7450063228607178e-01</leafValues></_></weakClassifiers></_>
    <!-- stage 8 -->
    <_>
      <maxWeakCount>3</maxWeakCount>
      <stageThreshold>5.3197020292282104e-01</stageThreshold>
      <weakClassifiers>
        <_>
          <internalNodes>
            0 -1 3 5.1949016749858856e-02</internalNodes>
          <leafValues>
            -9.0909093618392944e-01 6.8000000715255737e-01</leafValues></_>
        <_>
          <internalNodes>
            0 -1 13 2.5096386671066284e-02</internalNodes>
          <leafValues>
            6.6631317138671875e-01 -8.7074184417724609e-01</leafValues></_>
        <_>
          <internalNodes>
            0 -1 7 4.8762641847133636e-02</internalNodes>
          <leafValues>
            -7.9295086860656738e-01 7.7474790811538696e-01</leafValues></_></weakClassifiers></_></stages>
  <features>
    <_>
      <rect>
        0 12 8 8 0</rect></_>
    <_>
      <rect>
        0 44 8 8 26</rect></_>
    <_>
      <rect>
        4 4 8 8 2</rect></_>
    <_>
      <rect>
        4 56 8 8 7</rect></_>
    <_>
      <rect>
        8 4 8 8 3</rect></_>
    <_>
      <rect>
        12 4 8 8 14</rect></_>
    <_>
      <rect>
        12 8 8 8 14</rect></_>
    <_>
      <rect>
        12 56 8 8 22</rect></_>
    <_>
      <rect>
        16 52 8 8 17</rect></_>
    <_>
      <rect>
        16 56 8 8 20</rect></_>
    <_>
      <rect>
        0 0 8 16 26</rect></_>
    <_>
      <rect>
        8 32 8 16 30</rect></_>
    <_>
      <rect>
        0 56 16 8 7</rect></_>
    <_>
      <rect>
        0 56 16 8 26</rect></_>
    <_>
      <rect>
        0 0 16 32 31</rect></_>
    <_>
      <rect>
        0 8 16 32 4</rect></_></features></cascade>
</opencv_storage>
