<?xml version="1.0"?>
<opencv_storage>
<!-- Created using Computer Vision System Toolbox(tm) for MATLAB(R) -->
<!-- Version 9.2.0.556344 (R2017a) -->
<!-- Compatible with OpenCV 3.1 -->
<cascade>
  <stageType>BOOST</stageType>
  <featureType>HOG</featureType>
  <height>32</height>
  <width>59</width>
  <stageParams>
    <boostType>GAB</boostType>
    <minHitRate>9.9500000476837158e-01</minHitRate>
    <maxFalseAlarm>1.5000000596046448e-01</maxFalseAlarm>
    <weightTrimRate>9.4999999999999996e-01</weightTrimRate>
    <maxDepth>1</maxDepth>
    <maxWeakCount>100</maxWeakCount></stageParams>
  <featureParams>
    <maxCatCount>0</maxCatCount>
    <featSize>36</featSize></featureParams>
  <stageNum>7</stageNum>
  <stages>
    <!-- stage 0 -->
    <_>
      <maxWeakCount>2</maxWeakCount>
      <stageThreshold>5.3435113281011581e-02</stageThreshold>
      <weakClassifiers>
        <_>
          <internalNodes>
            0 -1 15 5.2066311240196228e-02</internalNodes>
          <leafValues>
            -9.4656491279602051e-01 9.8360657691955566e-01</leafValues></_>
        <_>
          <internalNodes>
            0 -1 29 1.3821929693222046e-02</internalNodes>
          <leafValues>
            1. -9.2902100086212158e-01</leafValues></_></weakClassifiers></_>
    <!-- stage 1 -->
    <_>
      <maxWeakCount>3</maxWeakCount>
      <stageThreshold>-7.3616117238998413e-01</stageThreshold>
      <weakClassifiers>
        <_>
          <internalNodes>
            0 -1 28 6.6581532359123230e-02</internalNodes>
          <leafValues>
            -8.8191884756088257e-01 9.8230087757110596e-01</leafValues></_>
        <_>
          <internalNodes>
            0 -1 23 5.3199626505374908e-02</internalNodes>
          <leafValues>
            -7.7691704034805298e-01 8.8445401191711426e-01</leafValues></_>
        <_>
          <internalNodes>
            0 -1 17 5.6583859026432037e-02</internalNodes>
          <leafValues>
            -7.3869639635086060e-01 9.3828719854354858e-01</leafValues></_></weakClassifiers></_>
    <!-- stage 2 -->
    <_>
      <maxWeakCount>4</maxWeakCount>
      <stageThreshold>-2.0699866116046906e-01</stageThreshold>
      <weakClassifiers>
        <_>
          <internalNodes>
            0 -1 27 8.9090004563331604e-02</internalNodes>
          <leafValues>
            -8.3396226167678833e-01 7.8151261806488037e-01</leafValues></_>
        <_>
          <internalNodes>
            0 -1 24 5.7759456336498260e-02</internalNodes>
          <leafValues>
            -7.3355603218078613e-01 8.0392920970916748e-01</leafValues></_>
        <_>
          <internalNodes>
            0 -1 9 5.9329822659492493e-02</internalNodes>
          <leafValues>
            -6.7617464065551758e-01 6.9938820600509644e-01</leafValues></_>
        <_>
          <internalNodes>
            0 -1 19 3.6270163953304291e-02</internalNodes>
          <leafValues>
            -7.1895450353622437e-01 6.6113150119781494e-01</leafValues></_></weakClassifiers></_>
    <!-- stage 3 -->
    <_>
      <maxWeakCount>4</maxWeakCount>
      <stageThreshold>-6.0846936702728271e-01</stageThreshold>
      <weakClassifiers>
        <_>
          <internalNodes>
            0 -1 0 1.1607632040977478e-02</internalNodes>
          <leafValues>
            -9.2372882366180420e-01 6.0810810327529907e-01</leafValues></_>
        <_>
          <internalNodes>
            0 -1 26 2.1640522405505180e-02</internalNodes>
          <leafValues>
            -8.8549935817718506e-01 5.8046841621398926e-01</leafValues></_>
        <_>
          <internalNodes>
            0 -1 4 2.2117435932159424e-02</internalNodes>
          <leafValues>
            -8.4910559654235840e-01 5.8338105678558350e-01</leafValues></_>
        <_>
          <internalNodes>
            0 -1 12 5.0408065319061279e-02</internalNodes>
          <leafValues>
            -8.9696711301803589e-01 6.1737775802612305e-01</leafValues></_></weakClassifiers></_>
    <!-- stage 4 -->
    <_>
      <maxWeakCount>6</maxWeakCount>
      <stageThreshold>-6.0559695959091187e-01</stageThreshold>
      <weakClassifiers>
        <_>
          <internalNodes>
            0 -1 20 3.4797057509422302e-02</internalNodes>
          <leafValues>
            -7.5289577245712280e-01 5.3600001335144043e-01</leafValues></_>
        <_>
          <internalNodes>
            0 -1 21 1.1446078307926655e-02</internalNodes>
          <leafValues>
            5.4515665769577026e-01 -6.8756330013275146e-01</leafValues></_>
        <_>
          <internalNodes>
            0 -1 16 3.8278020918369293e-02</internalNodes>
          <leafValues>
            -7.4298512935638428e-01 4.3291443586349487e-01</leafValues></_>
        <_>
          <internalNodes>
            0 -1 22 4.2737811803817749e-02</internalNodes>
          <leafValues>
            -5.4749971628189087e-01 6.6063594818115234e-01</leafValues></_>
        <_>
          <internalNodes>
            0 -1 26 2.8150653466582298e-02</internalNodes>
          <leafValues>
            -6.5663683414459229e-01 6.1246776580810547e-01</leafValues></_>
        <_>
          <internalNodes>
            0 -1 18 2.6944739744067192e-02</internalNodes>
          <leafValues>
            3.9794850349426270e-01 -8.8912653923034668e-01</leafValues></_></weakClassifiers></_>
    <!-- stage 5 -->
    <_>
      <maxWeakCount>5</maxWeakCount>
      <stageThreshold>-4.1484579443931580e-01</stageThreshold>
      <weakClassifiers>
        <_>
          <internalNodes>
            0 -1 30 2.1269027143716812e-02</internalNodes>
          <leafValues>
            -8.9573460817337036e-01 3.5260117053985596e-01</leafValues></_>
        <_>
          <internalNodes>
            0 -1 25 1.6954064369201660e-02</internalNodes>
          <leafValues>
            -9.6769362688064575e-01 1.7467798292636871e-01</leafValues></_>
        <_>
          <internalNodes>
            0 -1 2 1.1390371248126030e-02</internalNodes>
          <leafValues>
            4.8144677281379700e-01 -6.6474729776382446e-01</leafValues></_>
        <_>
          <internalNodes>
            0 -1 14 1.6443861648440361e-02</internalNodes>
          <leafValues>
            3.6325922608375549e-01 -8.2723748683929443e-01</leafValues></_>
        <_>
          <internalNodes>
            0 -1 5 3.0289951711893082e-02</internalNodes>
          <leafValues>
            -5.9633421897888184e-01 6.1317706108093262e-01</leafValues></_></weakClassifiers></_>
    <!-- stage 6 -->
    <_>
      <maxWeakCount>9</maxWeakCount>
      <stageThreshold>-7.5910961627960205e-01</stageThreshold>
      <weakClassifiers>
        <_>
          <internalNodes>
            0 -1 11 2.5421377271413803e-02</internalNodes>
          <leafValues>
            -6.8674701452255249e-01 3.1851851940155029e-01</leafValues></_>
        <_>
          <internalNodes>
            0 -1 3 1.7109666019678116e-02</internalNodes>
          <leafValues>
            3.4514331817626953e-01 -6.1928105354309082e-01</leafValues></_>
        <_>
          <internalNodes>
            0 -1 4 1.7627295106649399e-02</internalNodes>
          <leafValues>
            -8.5034543275833130e-01 2.9076114296913147e-01</leafValues></_>
        <_>
          <internalNodes>
            0 -1 8 4.5747555792331696e-02</internalNodes>
          <leafValues>
            -3.5768544673919678e-01 7.0998543500900269e-01</leafValues></_>
        <_>
          <internalNodes>
            0 -1 10 8.1989970058202744e-03</internalNodes>
          <leafValues>
            -1. 2.4239479005336761e-01</leafValues></_>
        <_>
          <internalNodes>
            0 -1 7 3.3642962574958801e-02</internalNodes>
          <leafValues>
            -4.8690834641456604e-01 4.4795653223991394e-01</leafValues></_>
        <_>
          <internalNodes>
            0 -1 13 3.1262587755918503e-02</internalNodes>
          <leafValues>
            3.3463203907012939e-01 -6.6577309370040894e-01</leafValues></_>
        <_>
          <internalNodes>
            0 -1 6 1.5671174973249435e-02</internalNodes>
          <leafValues>
            -7.4369758367538452e-01 2.7862235903739929e-01</leafValues></_>
        <_>
          <internalNodes>
            0 -1 1 1.2380445376038551e-02</internalNodes>
          <leafValues>
            3.4224769473075867e-01 -6.9462341070175171e-01</leafValues></_></weakClassifiers></_></stages>
  <features>
    <_>
      <rect>
        0 8 8 8 25</rect></_>
    <_>
      <rect>
        20 0 8 8 8</rect></_>
    <_>
      <rect>
        32 4 8 8 31</rect></_>
    <_>
      <rect>
        36 0 8 8 17</rect></_>
    <_>
      <rect>
        40 0 8 8 25</rect></_>
    <_>
      <rect>
        40 4 8 8 14</rect></_>
    <_>
      <rect>
        40 4 8 8 15</rect></_>
    <_>
      <rect>
        40 12 8 8 29</rect></_>
    <_>
      <rect>
        0 0 8 16 32</rect></_>
    <_>
      <rect>
        4 0 8 16 31</rect></_>
    <_>
      <rect>
        20 0 8 16 12</rect></_>
    <_>
      <rect>
        40 0 8 16 15</rect></_>
    <_>
      <rect>
        0 0 16 8 13</rect></_>
    <_>
      <rect>
        0 12 16 8 4</rect></_>
    <_>
      <rect>
        4 8 16 8 5</rect></_>
    <_>
      <rect>
        4 16 16 8 31</rect></_>
    <_>
      <rect>
        8 0 16 8 12</rect></_>
    <_>
      <rect>
        8 0 16 8 13</rect></_>
    <_>
      <rect>
        12 16 16 8 35</rect></_>
    <_>
      <rect>
        16 12 16 8 17</rect></_>
    <_>
      <rect>
        20 4 16 8 14</rect></_>
    <_>
      <rect>
        20 12 16 8 13</rect></_>
    <_>
      <rect>
        24 0 16 8 34</rect></_>
    <_>
      <rect>
        24 4 16 8 35</rect></_>
    <_>
      <rect>
        24 8 16 8 35</rect></_>
    <_>
      <rect>
        24 12 16 8 28</rect></_>
    <_>
      <rect>
        24 16 16 8 29</rect></_>
    <_>
      <rect>
        0 0 16 16 31</rect></_>
    <_>
      <rect>
        4 0 16 16 31</rect></_>
    <_>
      <rect>
        12 0 16 16 1</rect></_>
    <_>
      <rect>
        24 0 16 16 27</rect></_></features></cascade>
</opencv_storage>
