<?xml version="1.0"?>
<opencv_storage>
<stage7>
  <maxWeakCount>11</maxWeakCount>
  <stageThreshold>-3.4314092993736267e-01</stageThreshold>
  <weakClassifiers>
    <_>
      <internalNodes>
        0 -1 1656 4.5865112915635109e-03</internalNodes>
      <leafValues>
        6.0000002384185791e-01 -5.7512950897216797e-01</leafValues></_>
    <_>
      <internalNodes>
        0 -1 2148 3.3353056758642197e-02</internalNodes>
      <leafValues>
        -4.0764853358268738e-01 5.3361916542053223e-01</leafValues></_>
    <_>
      <internalNodes>
        0 -1 236 1.1338865384459496e-02</internalNodes>
      <leafValues>
        4.1303732991218567e-01 -6.3966202735900879e-01</leafValues></_>
    <_>
      <internalNodes>
        0 -1 1817 3.3801518380641937e-02</internalNodes>
      <leafValues>
        3.1352525949478149e-01 -7.6055932044982910e-01</leafValues></_>
    <_>
      <internalNodes>
        0 -1 1795 3.4725744277238846e-02</internalNodes>
      <leafValues>
        2.2942136228084564e-01 -9.0810042619705200e-01</leafValues></_>
    <_>
      <internalNodes>
        0 -1 1002 2.8389181941747665e-02</internalNodes>
      <leafValues>
        -5.0534790754318237e-01 5.0553560256958008e-01</leafValues></_>
    <_>
      <internalNodes>
        0 -1 1264 2.6375412940979004e-02</internalNodes>
      <leafValues>
        2.5628325343132019e-01 -6.8420159816741943e-01</leafValues></_>
    <_>
      <internalNodes>
        0 -1 1082 1.4922776259481907e-02</internalNodes>
      <leafValues>
        3.9794203639030457e-01 -6.2461638450622559e-01</leafValues></_>
    <_>
      <internalNodes>
        0 -1 842 3.6888629198074341e-02</internalNodes>
      <leafValues>
        -4.0634247660636902e-01 6.0272163152694702e-01</leafValues></_>
    <_>
      <internalNodes>
        0 -1 130 8.1514660269021988e-03</internalNodes>
      <leafValues>
        4.7786316275596619e-01 -4.9217253923416138e-01</leafValues></_>
    <_>
      <internalNodes>
        0 -1 1253 3.5263653844594955e-02</internalNodes>
      <leafValues>
        -4.2176181077957153e-01 5.9724515676498413e-01</leafValues></_></weakClassifiers></stage7>
</opencv_storage>
