<?xml version="1.0"?>
<opencv_storage>
<stage4>
  <maxWeakCount>5</maxWeakCount>
  <stageThreshold>-1.1040024757385254e+00</stageThreshold>
  <weakClassifiers>
    <_>
      <internalNodes>
        0 -1 1281 1.1589528992772102e-02</internalNodes>
      <leafValues>
        4.5454546809196472e-01 -7.8064513206481934e-01</leafValues></_>
    <_>
      <internalNodes>
        0 -1 517 4.4755563139915466e-02</internalNodes>
      <leafValues>
        -6.2851512432098389e-01 6.1282181739807129e-01</leafValues></_>
    <_>
      <internalNodes>
        0 -1 1335 1.7608210444450378e-02</internalNodes>
      <leafValues>
        5.0212413072586060e-01 -7.7235323190689087e-01</leafValues></_>
    <_>
      <internalNodes>
        0 -1 88 1.2098411098122597e-02</internalNodes>
      <leafValues>
        5.7482248544692993e-01 -6.7402207851409912e-01</leafValues></_>
    <_>
      <internalNodes>
        0 -1 1082 2.2540366277098656e-02</internalNodes>
      <leafValues>
        4.6072974801063538e-01 -7.5813490152359009e-01</leafValues></_></weakClassifiers></stage4>
</opencv_storage>
