<?xml version="1.0"?>
<opencv_storage>
<!-- Created using Computer Vision System Toolbox(tm) for MATLAB(R) -->
<!-- Version 9.2.0.556344 (R2017a) -->
<!-- Compatible with OpenCV 3.1 -->
<cascade>
  <stageType>BOOST</stageType>
  <featureType>HOG</featureType>
  <height>32</height>
  <width>66</width>
  <stageParams>
    <boostType>GAB</boostType>
    <minHitRate>9.9500000476837158e-01</minHitRate>
    <maxFalseAlarm>1.0000000149011612e-01</maxFalseAlarm>
    <weightTrimRate>9.4999999999999996e-01</weightTrimRate>
    <maxDepth>1</maxDepth>
    <maxWeakCount>100</maxWeakCount></stageParams>
  <featureParams>
    <maxCatCount>0</maxCatCount>
    <featSize>36</featSize></featureParams>
  <stageNum>8</stageNum>
  <stages>
    <!-- stage 0 -->
    <_>
      <maxWeakCount>1</maxWeakCount>
      <stageThreshold>1.</stageThreshold>
      <weakClassifiers>
        <_>
          <internalNodes>
            0 -1 1 6.2533207237720490e-03</internalNodes>
          <leafValues>
            1. -1.</leafValues></_></weakClassifiers></_>
    <!-- stage 1 -->
    <_>
      <maxWeakCount>1</maxWeakCount>
      <stageThreshold>1.</stageThreshold>
      <weakClassifiers>
        <_>
          <internalNodes>
            0 -1 4 9.0340197086334229e-02</internalNodes>
          <leafValues>
            -1. 1.</leafValues></_></weakClassifiers></_>
    <!-- stage 2 -->
    <_>
      <maxWeakCount>2</maxWeakCount>
      <stageThreshold>7.4077121913433075e-02</stageThreshold>
      <weakClassifiers>
        <_>
          <internalNodes>
            0 -1 2 5.9846066869795322e-04</internalNodes>
          <leafValues>
            1. -9.2000001668930054e-01</leafValues></_>
        <_>
          <internalNodes>
            0 -1 12 4.0701553225517273e-03</internalNodes>
          <leafValues>
            1. -9.2592287063598633e-01</leafValues></_></weakClassifiers></_>
    <!-- stage 3 -->
    <_>
      <maxWeakCount>1</maxWeakCount>
      <stageThreshold>1.</stageThreshold>
      <weakClassifiers>
        <_>
          <internalNodes>
            0 -1 5 5.0693590193986893e-02</internalNodes>
          <leafValues>
            -1. 1.</leafValues></_></weakClassifiers></_>
    <!-- stage 4 -->
    <_>
      <maxWeakCount>1</maxWeakCount>
      <stageThreshold>1.</stageThreshold>
      <weakClassifiers>
        <_>
          <internalNodes>
            0 -1 3 6.9896299391984940e-03</internalNodes>
          <leafValues>
            -1. 1.</leafValues></_></weakClassifiers></_>
    <!-- stage 5 -->
    <_>
      <maxWeakCount>1</maxWeakCount>
      <stageThreshold>8.4615385532379150e-01</stageThreshold>
      <weakClassifiers>
        <_>
          <internalNodes>
            0 -1 10 2.7106175199151039e-02</internalNodes>
          <leafValues>
            -1. 8.4615385532379150e-01</leafValues></_></weakClassifiers></_>
    <!-- stage 6 -->
    <_>
      <maxWeakCount>3</maxWeakCount>
      <stageThreshold>6.9390720129013062e-01</stageThreshold>
      <weakClassifiers>
        <_>
          <internalNodes>
            0 -1 0 2.2553458984475583e-04</internalNodes>
          <leafValues>
            9.1304349899291992e-01 -9.1836732625961304e-01</leafValues></_>
        <_>
          <internalNodes>
            0 -1 7 3.2352842390537262e-02</internalNodes>
          <leafValues>
            -1. 7.0493829250335693e-01</leafValues></_>
        <_>
          <internalNodes>
            0 -1 6 3.8469873368740082e-02</internalNodes>
          <leafValues>
            -8.7085509300231934e-01 9.0733623504638672e-01</leafValues></_></weakClassifiers></_>
    <!-- stage 7 -->
    <_>
      <maxWeakCount>3</maxWeakCount>
      <stageThreshold>1.0629508495330811e+00</stageThreshold>
      <weakClassifiers>
        <_>
          <internalNodes>
            0 -1 11 2.3082122206687927e-02</internalNodes>
          <leafValues>
            -7.7777779102325439e-01 1.</leafValues></_>
        <_>
          <internalNodes>
            0 -1 8 3.5436749458312988e-02</internalNodes>
          <leafValues>
            -1. 9.1720032691955566e-01</leafValues></_>
        <_>
          <internalNodes>
            0 -1 9 1.4439946040511131e-02</internalNodes>
          <leafValues>
            9.2352837324142456e-01 -1.</leafValues></_></weakClassifiers></_></stages>
  <features>
    <_>
      <rect>
        0 0 8 8 5</rect></_>
    <_>
      <rect>
        0 4 8 8 21</rect></_>
    <_>
      <rect>
        0 4 8 8 22</rect></_>
    <_>
      <rect>
        0 8 8 8 25</rect></_>
    <_>
      <rect>
        8 16 8 8 31</rect></_>
    <_>
      <rect>
        24 4 8 8 3</rect></_>
    <_>
      <rect>
        44 16 8 8 29</rect></_>
    <_>
      <rect>
        0 0 16 8 18</rect></_>
    <_>
      <rect>
        0 12 16 8 25</rect></_>
    <_>
      <rect>
        20 4 16 8 28</rect></_>
    <_>
      <rect>
        20 8 16 8 16</rect></_>
    <_>
      <rect>
        20 8 16 8 27</rect></_>
    <_>
      <rect>
        0 0 16 16 15</rect></_></features></cascade>
</opencv_storage>
